{
  "solar_model": {
    "type": "neural_network_mlp",
    "architecture": "3-8-1",
    "weights": {
      "weights_ih": [
        [
          -0.6296147036731287,
          0.17374336344982108,
          0.8128959457144361
        ],
        [
          -0.20748238391890578,
          -1.0550059450879858,
          0.0783331950500039
        ],
        [
          -0.4507673122548537,
          -0.23970250475453997,
          0.8137654140006436
        ],
        [
          -0.13177085885631665,
          0.8425296785343396,
          0.6517826244332333
        ],
        [
          -0.6715894616792876,
          -0.6712880822133153,
          -0.1100490934790371
        ],
        [
          0.07209355212835925,
          -0.8358652964468561,
          -0.8948987459268846
        ],
        [
          -0.18394262031790437,
          -0.9162239590441483,
          0.3215479360610509
        ],
        [
          -0.10221112948970933,
          1.0687729711441483,
          0.18198805477427077
        ]
      ],
      "weights_ho": [
        [
          0.8339038191470902,
          -0.2050758513134859,
          -0.45331312736822027,
          0.355321739847634,
          1.062076983704235,
          -0.6753377533753699,
          0.2380994566625624,
          1.1081924997237376
        ]
      ],
      "bias_h": [
        [
          1.1496183404205094
        ],
        [
          -0.609672085458272
        ],
        [
          -0.40516600213433984
        ],
        [
          -0.028879679391387518
        ],
        [
          0.6400961217029927
        ],
        [
          -0.47180569797744654
        ],
        [
          -0.7264615694790553
        ],
        [
          -0.22463234825607656
        ]
      ],
      "bias_o": [
        [
          0.048047048087664114
        ]
      ],
      "architecture": {
        "input": 3,
        "hidden": 8,
        "output": 1
      }
    },
    "normalization": {
      "temp_max": 50,
      "irr_max": 1200,
      "wind_max": 30
    },
    "metadata": {
      "trained_at": "2026-01-14T16:19:37.824Z",
      "epochs": 5000,
      "final_loss": "0.0021"
    }
  }
}